svm_type c_svc
kernel_type rbf
gamma 0.111111
nr_class 2
total_sv 153
rho -0.0527565
label 0 1
probA -2.16596
probB -0.20138
nr_sv 76 77
SV
1 1:-0.114702 2:0.998765 3:-0.999418 4:0.842235 5:-0.421402 6:-0.949003 7:-0.968488 8:-0.655563 9:1 
1 1:-0.666854 2:0.784087 3:-0.994906 4:0.603426 5:0.0113324 6:-0.830734 7:-0.866572 8:0.0583207 9:0.16666 
1 1:0.670837 2:0.475911 3:-0.92623 4:0.812588 5:-0.567686 6:-0.572765 7:-0.501774 8:-0.0220323 9:0.26012 
1 1:0.289421 2:0.969503 3:-0.993221 4:0.331248 5:0.370674 6:-0.958497 7:-0.967637 8:0.273377 9:1 
1 1:0.506537 2:0.938581 3:-0.993221 4:0.68879 5:-0.202052 6:-0.826665 7:-0.833925 8:-0.678891 9:0.26316 
1 1:0.476877 2:0.734481 3:-0.982571 4:0.785028 5:-0.429588 6:-0.788688 7:-0.801561 8:-0.334482 9:0.1923 
1 1:0.033058 2:0.23591 3:-0.990593 4:0.662868 5:-0.485639 6:-0.988878 7:-0.988361 8:-0.63604 9:1 
1 1:0.188762 2:0.987222 3:-0.953247 4:0.789348 5:-0.041967 6:-0.976129 7:-0.981263 8:-0.91438 9:1 
1 1:0.366856 2:0.51687 3:-0.985278 4:-0.547114 5:0.307506 6:-0.939509 7:-0.964514 8:-0.00532194 9:0.81818 
1 1:0.253122 2:-0.281887 3:-0.99992 4:0.592402 5:0.4776 6:-0.962837 7:-0.975586 8:0.268634 9:1 
1 1:-0.488692 2:0.759497 3:-0.967167 4:0.82108 5:-0.384264 6:-0.991862 7:-0.990064 8:-0.705887 9:1 
1 1:-0.0919954 2:0.833192 3:-0.993822 4:-0.229795 5:0.140526 6:-0.858674 7:-0.883038 8:0.0734868 9:0.57894 
1 1:-0.230821 2:0.996024 3:-0.99994 4:0.718436 5:-0.344743 6:-0.953072 7:-0.961675 8:0.0710327 9:1 
1 1:-0.0554718 2:0.49282 3:-0.958903 4:0.557244 5:-0.749595 6:-0.973417 7:-0.993187 8:-0.714022 9:1 
1 1:-0.478723 2:0.994402 3:-1 4:0.806182 5:-0.293307 6:-0.950359 7:-0.960823 8:0.229036 9:1 
1 1:-0.127641 2:0.581416 3:-0.992298 4:0.733631 5:-0.47105 6:-0.983724 7:-0.988077 8:-0.375348 9:1 
1 1:0.230821 2:0.308562 3:-0.974668 4:0.623687 5:-0.252956 6:-0.95904 7:-0.956565 8:-0.696732 9:0.61904 
1 1:-0.562549 2:0.370792 3:-0.963416 4:0.73825 5:-0.461 6:-0.991591 7:-0.990348 8:-0.733683 9:1 
1 1:0.645296 2:0.193329 3:-0.963476 4:0.905102 5:-0.689658 6:-0.845924 7:-0.74961 8:-0.250407 9:0.80358 
1 1:0.638702 2:0.542966 3:1 4:0.265102 5:-0.715957 6:-0.983724 7:-0.985238 8:-0.219275 9:1 
1 1:0.476607 2:0.596742 3:0.0864254 4:0.502868 5:-0.670732 6:-0.89231 7:-0.832221 8:-0.269847 9:0.7191 
0.6625362978573907 1:0.438891 2:0.791499 3:0.101167 4:0.558436 5:-0.765961 6:-0.851621 7:-0.771753 8:0.063229 9:0.70802 
1 1:0.868353 2:0.951513 3:-0.953388 4:1 5:-0.00834665 6:-0.475926 7:-0.917104 8:-1 9:-1 
1 1:0.723721 2:0.62886 3:-0.983874 4:0.881415 5:-0.680058 6:-0.632443 7:-0.464585 8:-0.319923 9:0.51112 
1 1:0.589801 2:0.483902 3:-0.986161 4:0.719628 5:0.193989 6:-0.903974 7:-0.899787 8:0.310685 9:0.6 
1 1:0.855391 2:0.824506 3:0.649565 4:0.576313 5:-0.709892 6:-0.705412 7:-0.550035 8:-0.266952 9:0.58096 
1 1:0.767379 2:0.967457 3:-0.0425408 4:0.439553 5:-0.881236 6:-0.986708 7:-0.985522 8:-0.484627 9:1 
1 1:0.234489 2:0.99695 3:-0.984717 4:0.547858 5:0.251489 6:-0.802794 7:-0.858339 8:-0.0823935 9:0.36842 
1 1:0.770957 2:0.62002 3:-0.96115 4:0.896909 5:-0.737208 6:-0.759121 7:-0.65252 8:0.225507 9:0.62938 
1 1:0.585616 2:0.521695 3:-0.999759 4:0.839553 5:0.439638 6:-0.932999 7:-0.957133 8:-0.494692 9:1 
1 1:0.424151 2:0.588944 3:0.737755 4:0.498696 5:-0.71258 6:-0.979384 7:-0.982967 8:-0.416242 9:1 
1 1:0.890564 2:0.64685 3:0.795559 4:0.743166 5:-0.0642578 6:-0.391835 7:-0.622427 8:-0.547691 9:-0.41666 
1 1:-0.0486531 2:0.47649 3:-0.983995 4:0.0598138 5:0.730406 6:-0.992676 7:-0.990916 8:-0.122735 9:1 
1 1:0.542386 2:0.802347 3:0.41213 4:0.612812 5:-0.784389 6:-0.904516 7:-0.858623 8:-0.333104 9:0.79268 
1 1:0.493395 2:0.534396 3:-0.979281 4:0.1854 5:0.172008 6:-0.906958 7:-0.968204 8:-0.511292 9:0.92592 
1 1:0.6705 2:0.802347 3:-0.959224 4:0.891844 5:-0.704727 6:-0.774583 7:-0.677218 8:-0.0804081 9:0.61314 
1 1:0.712267 2:0.690009 3:0.296582 4:0.662421 5:-0.888815 6:-0.75885 7:-0.640596 8:-0.816986 9:0.58192 
1 1:0.445732 2:0.928274 3:-0.992459 4:0.294153 5:-0.291344 6:-0.969076 7:-0.978424 8:-0.200607 9:1 
1 1:-0.0999842 2:0.669626 3:-0.992639 4:0.769683 5:-0.471202 6:-0.986166 7:-0.991199 8:-0.367241 9:1 
1 1:0.625672 2:0.961859 3:-0.994645 4:0.843277 5:-0.628757 6:-0.762919 7:-0.691128 8:-0.198235 9:0.52942 
1 1:0.297522 2:0.819642 3:-0.439548 4:0.303687 5:0.141589 6:-0.230978 7:-0.550887 8:-0.755081 9:-0.64444 
1 1:0.241195 2:0.982358 3:-0.671166 4:0.773557 5:-0.793236 6:-0.98915 7:-0.988361 8:-0.714242 9:1 
1 1:0.00285798 2:0.933794 3:-0.987525 4:0.512551 5:-0.436559 6:-0.963109 7:-0.967637 8:-0.0627051 9:1 
1 1:-0.39089 2:0.712593 3:-0.216635 4:0.478138 5:0.0383034 6:-0.0191238 7:-0.344784 8:-0.67652 9:-0.65384 
0.3705066835696197 1:-0.533924 2:0.810145 3:-0.164186 4:0.404842 5:-0.707958 6:-0.983724 7:-0.986373 8:-0.3162 9:1 
1 1:-0.053604 2:0.672251 3:0.0516467 4:0.357169 5:0.168753 6:-0.0769022 7:-0.35841 8:-0.78635 9:-0.5122 
1 1:-0.236627 2:0.981509 3:-0.998576 4:0.922086 5:-0.479709 6:-0.96772 7:-0.973882 8:-0.0298084 9:1 
1 1:0.492045 2:0.994634 3:-0.99984 4:0.909721 5:-0.2717 6:-0.968263 7:-0.963662 8:0.998925 9:1 
1 1:0.0145149 2:0.609134 3:-0.986 4:0.850577 5:-0.524109 6:-0.437135 7:-0.635202 8:-0.567076 9:-0.45454 
1 1:0.864482 2:0.873417 3:-0.942396 4:0.693855 5:-0.0464193 6:-0.762376 7:-0.820014 8:0.00670068 9:0.29412 
1 1:0.543061 2:0.328521 3:-0.899755 4:0.0575791 5:0.09245 6:-0.877933 7:-0.897516 8:-0.0926513 9:0.71428 
1 1:-0.451246 2:-0.097012 3:-0.96821 4:0.453855 5:-0.335727 6:-0.96772 7:-0.974734 8:-0.0956018 9:0.95122 
1 1:0.512163 2:0.200741 3:-0.988728 4:0.494674 5:-0.278834 6:-0.793571 7:-0.815188 8:-0.538756 9:0.06666 
1 1:0.720706 2:0.654918 3:-0.964379 4:0.41527 5:0.341745 6:-0.833446 7:-0.829099 8:-0.123397 9:0.27272 
1 1:0.472422 2:-0.376892 3:-0.99986 4:0.797989 5:-0.0219315 6:-0.8622 7:-0.861746 8:0.564677 9:0.5 
1 1:0.000652609 2:-0.394032 3:0.838241 4:0.556499 5:0.632186 6:-0.981826 7:-0.984386 8:0.273211 9:1 
1 1:0.0618854 2:0.37998 3:-0.997954 4:0.738994 5:-0.112246 6:-0.79981 7:-0.871682 8:-0.716669 9:0.46428 
1 1:0.732025 2:0.570028 3:-0.997653 4:0.905549 5:-0.431043 6:-0.782721 7:-0.777999 8:-0.475196 9:0.2 
1 1:0.438936 2:-0.0480235 3:-0.999278 4:0.712775 5:0.335546 6:-0.964736 7:-0.959688 8:-0.42967 9:1 
1 1:0.418773 2:0.276868 3:-0.999599 4:0.602831 5:0.220773 6:-0.90967 7:-0.930731 8:0.247732 9:1 
1 1:0.110584 2:0.229656 3:-0.999258 4:0.738399 5:0.913074 6:-0.956327 7:-0.971611 8:-0.210754 9:1 
1 1:0.23665 2:0.269688 3:-0.998937 4:0.600745 5:0.255083 6:-0.954428 7:-0.967353 8:-0.0160485 9:1 
1 1:0.949524 2:0.0304972 3:-0.999819 4:0.790689 5:-0.30577 6:-0.962566 7:-0.981547 8:-0.419606 9:1 
1 1:0.797826 2:-0.181671 3:-0.998837 4:0.757318 5:-0.45639 6:-0.906687 7:-0.896664 8:-0.245388 9:0.70968 
1 1:0.800887 2:0.727918 3:-0.89799 4:0.829423 5:-0.683634 6:-0.942222 7:-0.936977 8:-0.0643872 9:0.83812 
1 1:0.453001 2:0.38994 3:-0.997754 4:0.87933 5:-0.497623 6:-0.92459 7:-0.928176 8:-0.100483 9:0.6087 
1 1:0.78959 2:0.711936 3:-0.909643 4:0.797393 5:-0.68929 6:-0.958226 7:-0.961391 8:0.0115814 9:0.97024 
1 1:-0.529851 2:0.788527 3:-0.995587 4:1 5:-0.00834665 6:-0.545639 7:-0.936409 8:-1 9:-1 
1 1:0.755181 2:0.130096 3:-0.999519 4:0.916127 5:-0.394887 6:-0.882273 7:-0.875656 8:-0.234827 9:0.29412 
1 1:0.325585 2:-0.146155 3:-0.999779 4:0.569311 5:0.112526 6:-0.957955 7:-0.974166 8:0.133683 9:1 
1 1:0.658213 2:0.875926 3:-0.949236 4:0.825549 5:-0.519166 6:-0.903431 7:-0.878779 8:-0.629505 9:0.5 
1 1:-0.623669 2:0.822074 3:-0.0427815 4:-0.113892 5:1 6:-0.979655 7:-0.981263 8:-0.120419 9:0.92156 
1 1:-0.312285 2:0.337361 3:-0.83088 4:0.0133333 5:0.341062 6:-0.901804 7:-0.879063 8:0.972563 9:0.47368 
1 1:0.490492 2:-1 3:-0.999739 4:0.485587 5:0.536596 6:-0.98915 7:-0.987225 8:-0.456914 9:1 
1 1:0.720053 2:0.839793 3:-0.987304 4:0.410801 5:-0.389558 6:-0.945748 7:-0.956281 8:-0.16214 9:0.93548 
1 1:-0.245719 2:0.305667 3:-0.99992 4:0.534749 5:-0.246418 6:-0.923776 7:-0.968772 8:0.0305529 9:1 
-1 1:-0.742602 2:0.358593 3:-0.991255 4:0.447449 5:0.356212 6:-0.981826 7:-0.989212 8:-0.652199 9:1 
-0.7009941985734265 1:-0.768099 2:0.580644 3:-0.967187 4:-0.542942 5:0.461602 6:-0.987793 7:-0.990916 8:-0.903212 9:1 
-1 1:0.126786 2:0.884998 3:-0.994906 4:0.259888 5:-0.526809 6:-0.938424 7:-0.980979 8:-0.449138 9:1 
-1 1:0.538853 2:-0.173062 3:-0.95405 4:0.145028 5:0.297257 6:-0.980741 7:-0.990916 8:-0.761175 9:1 
-1 1:0.364651 2:-0.0160979 3:-0.960227 4:0.197765 5:0.386765 6:-0.988065 7:-0.98978 8:-0.354639 9:1 
-1 1:0.384319 2:0.966221 3:-0.98951 4:0.700559 5:0.0167254 6:-0.812831 7:-0.808943 8:-0.0881015 9:0.05 
-1 1:-0.0569795 2:0.483632 3:-0.992037 4:-1 5:-0.29721 6:-0.971246 7:-0.976437 8:-0.27288 9:1 
-1 1:-0.674055 2:0.443098 3:-0.994745 4:0.736462 5:0.292156 6:-0.940323 7:-0.973598 8:-0.0923756 9:1 
-0.8801642178148461 1:0.664311 2:0.5293 3:-0.993903 4:0.479628 5:0.259114 6:-0.949274 7:-0.973031 8:0.286089 9:0.94286 
-1 1:-0.320341 2:0.783045 3:-0.987123 4:0.648417 5:0.441297 6:-0.930557 7:-0.936977 8:0.112919 9:0.82352 
-1 1:0.0608277 2:0.0565936 3:-0.951101 4:0.333035 5:0.353945 6:-0.977214 7:-0.978424 8:-0.276437 9:1 
-1 1:0.368499 2:0.829061 3:-0.960728 4:0.760447 5:-0.00758707 6:-0.927031 7:-0.936409 8:-0.98886 9:0.61904 
-1 1:-0.0126021 2:0.405188 3:-0.996089 4:0.647374 5:-0.00441435 6:-0.902618 7:-0.909155 8:-0.883055 9:0.28302 
-1 1:0.170196 2:0.680937 3:-0.995387 4:0.662719 5:0.212528 6:-0.830191 7:-0.830234 8:-0.83957 9:0.07692 
-1 1:0.526611 2:0.833809 3:0.27813 4:0.690279 5:-0.00671647 6:-0.906687 7:-0.930163 8:-0.990404 9:0.13676 
-1 1:0.459572 2:0.532736 3:-0.979181 4:0.769981 5:-0.0821431 6:-0.900719 7:-0.904329 8:-0.80386 9:0.11112 
-1 1:-0.280127 2:0.151367 3:-0.854768 4:0.708156 5:0.315797 6:-0.989692 7:-0.991199 8:-0.584007 9:1 
-1 1:-0.455431 2:0.891175 3:-0.977717 4:0.585996 5:0.422425 6:-0.927574 7:-0.942654 8:-0.183565 9:0.86364 
-1 1:0.547044 2:0.50691 3:-0.967127 4:0.730801 5:0.0355748 6:-0.90316 7:-0.94379 8:0.484351 9:1 
-1 1:-0.422171 2:0.505598 3:-0.977356 4:0.654078 5:0.422886 6:-0.929472 7:-0.958268 8:-0.157866 9:0.93104 
-0.0689329135193583 1:-0.0161352 2:0.699004 3:-0.96839 4:-0.336462 5:0.363627 6:-0.952258 7:-0.964514 8:-0.178574 9:0.90244 
-1 1:0.427662 2:0.786481 3:-0.614746 4:0.587039 5:-0.00785 6:-0.839414 7:-0.88247 8:-0.982848 9:-0.04348 
-1 1:0.464208 2:0.618476 3:-0.595732 4:0.57825 5:-0.0270149 6:-0.776753 7:-0.883605 8:-0.990239 9:-0.52942 
-1 1:0.165065 2:0.761851 3:-0.911569 4:0.331099 5:0.22966 6:-0.961481 7:-0.98467 8:0.289591 9:1 
-1 1:0.678151 2:0.446302 3:-0.823057 4:0.39203 5:-0.240867 6:-0.986166 7:-0.972747 8:-0.244726 9:0.95122 
-1 1:0.276324 2:0.831995 3:0.911087 4:0.656313 5:0.00309968 6:-0.937881 7:-0.946629 8:-0.953095 9:0.55556 
-1 1:0.636969 2:0.854733 3:0.983774 4:0.727523 5:0.149635 6:-0.930015 7:-0.987793 8:-0.752213 9:1 
-1 1:-0.324504 2:0.307288 3:-0.923262 4:0.294004 5:0.262112 6:-0.960396 7:-0.971611 8:-0.528967 9:1 
-1 1:0.474357 2:0.996101 3:-0.971098 4:0.428827 5:-0.276959 6:-0.944934 7:-0.956281 8:-0.321026 9:1 
-1 1:-0.0137048 2:0.78679 3:-0.984275 4:0.375493 5:-0.266535 6:-0.994032 7:-0.990916 8:-0.70506 9:1 
-1 1:-0.125571 2:0.178351 3:-0.955714 4:0.628007 5:0.288615 6:-0.992405 7:-0.990916 8:-0.500758 9:1 
-1 1:0.317371 2:0.979617 3:-0.988447 4:0.751508 5:-0.0307485 6:-0.958497 7:-0.968772 8:-0.0504895 9:1 
-1 1:-0.0902851 2:0.322923 3:-0.932649 4:0.1927 5:0.318023 6:-0.96772 7:-0.976153 8:-0.197408 9:1 
-1 1:0.828161 2:0.443947 3:-0.684945 4:0.92 5:0.016743 6:-0.860301 7:-0.923066 8:-0.970081 9:-0.46068 
-1 1:0.810226 2:0.658701 3:-0.990834 4:0.956797 5:-0.63755 6:-0.934626 7:-0.916253 8:0.022115 9:0.66666 
-1 1:0.856403 2:0.719541 3:-0.987725 4:0.584804 5:-0.637287 6:-0.981283 7:-0.983251 8:-0.124666 9:1 
-1 1:0.893715 2:0.849212 3:-0.991295 4:0.373259 5:-0.403073 6:-0.945748 7:-0.963094 8:0.14372 9:1 
-1 1:0.800009 2:0.754517 3:-0.115227 4:0.692961 5:-0.301113 6:0.462091 7:-0.448119 8:-0.915759 9:-0.88888 
-1 1:0.492765 2:0.685261 3:-0.912933 4:0.395307 5:0.292431 6:-0.885257 7:-0.888715 8:0.223356 9:0.46666 
-1 1:0.883498 2:0.875347 3:-0.902383 4:0.463687 5:0.351567 6:-0.0166825 7:-0.261604 8:-0.538177 9:-0.33334 
-1 1:0.319779 2:0.562616 3:-0.980565 4:0.732142 5:-0.345543 6:-0.955513 7:-0.977005 8:-0.149704 9:1 
-1 1:-0.8215 2:-0.131254 3:-0.971639 4:0.703836 5:0.204605 6:-0.966364 7:-0.973031 8:-0.293865 9:0.94444 
-1 1:0.569458 2:0.290303 3:-0.993722 4:0.78905 5:-0.514147 6:-0.982639 7:-0.980128 8:-0.0269957 9:1 
-1 1:0.602921 2:0.290303 3:-0.994183 4:0.778324 5:-0.687291 6:-0.960667 7:-0.975302 8:0.84707 9:1 
-1 1:0.570808 2:0.744595 3:-0.994023 4:0.604767 5:-0.285402 6:-0.967991 7:-0.973031 8:-0.0335034 9:1 
-1 1:0.518824 2:0.657312 3:-0.993281 4:0.620261 5:-0.351737 6:-0.990506 7:-0.986941 8:-0.50586 9:1 
-1 1:0.504827 2:0.971433 3:-0.296362 4:0.805289 5:-0.764109 6:-0.998101 7:-0.985806 8:-0.431766 9:1 
-1 1:0.920494 2:0.341878 3:-0.909222 4:0.709944 5:-0.00657624 6:-0.802794 7:-0.741945 8:0.228595 9:0.4 
-1 1:0.703895 2:-0.282659 3:-0.966826 4:0.722458 5:0.410458 6:-0.977757 7:-0.985522 8:0.37681 9:1 
-1 1:0.553548 2:0.401984 3:-0.990413 4:1 5:-0.00834665 6:-0.471586 7:-0.949752 8:-1 9:-1 
-1 1:0.814456 2:0.973865 3:-0.344719 4:0.803054 5:-0.792593 6:-0.975858 7:-0.981547 8:-0.25901 9:1 
-0.8910687880203798 1:0.628598 2:0.857628 3:-0.980886 4:0.870093 5:-0.00408714 6:-0.908043 7:-0.894109 8:-0.930898 9:0.48 
-1 1:0.719513 2:0.427231 3:-0.908139 4:0.432998 5:0.331596 6:-0.82775 7:-0.821434 8:-0.137736 9:0.12196 
-1 1:0.672705 2:0.427231 3:-0.98237 4:0.835084 5:0.228392 6:-0.884172 7:-0.882186 8:-0.1494 9:0.16666 
-1 1:0.384882 2:0.942596 3:-0.720647 4:0.655419 5:-0.839103 6:-0.501424 7:-0.561675 8:-0.47186 9:-0.17978 
-1 1:0.522087 2:0.502393 3:-0.957941 4:0.687896 5:-0.541498 6:-0.885257 7:-0.86714 8:0.00989935 9:0.68628 
-1 1:0.859284 2:0.718731 3:-0.981728 4:0.88216 5:-0.178441 6:-0.791944 7:-0.807239 8:-0.641169 
-1 1:0.546932 2:0.959582 3:-0.973545 4:0.800372 5:-0.377638 6:-0.973417 7:-0.97445 8:0.235434 9:1 
-1 1:0.765106 2:0.718731 3:-0.970195 4:1 5:-0.00834665 6:-0.707582 7:-0.923634 8:-1 9:-1 
-1 1:-0.334744 2:0.718731 3:-0.986201 4:0.887076 5:0.124504 6:-0.904788 7:-0.898084 8:0.228292 9:0.4054 
-1 1:0.26595 2:0.990233 3:-0.306731 4:0.775642 5:-0.643235 6:-0.966635 7:-0.977857 8:0.426941 9:0.98952 
-1 1:0.675406 2:0.542851 3:0.266437 4:0.0435754 5:-0.336282 6:-0.96772 7:-0.992903 8:-0.791314 9:1 
-1 1:0.817832 2:0.719812 3:-0.981247 4:0.510912 5:-0.223946 6:-0.955513 7:-0.967637 8:-0.459369 9:1 
-1 1:0.445147 2:0.625579 3:-0.975631 4:0.774749 5:0.220042 6:-0.973417 7:-0.975302 8:0.657549 9:1 
-1 1:-0.0636632 2:0.0558987 3:-0.388062 4:0.719628 5:0.371848 6:-0.964736 7:-0.972747 8:-0.102137 9:1 
-1 1:0.644936 2:0.771194 3:-0.993 4:0.799181 5:-0.295294 6:-0.972331 7:-0.979276 8:-0.591728 9:1 
-1 1:-0.351689 2:0.434605 3:-0.992057 4:0.793222 5:0.0930226 6:-0.876034 7:-0.891838 8:0.25981 9:0.53846 
-1 1:1 2:0.108593 3:-0.61605 4:0.748082 5:-0.50838 6:-0.992405 7:-0.990064 8:-0.45537 9:1 
-0.491882863499 1:-0.28492 2:0.837091 3:0.816479 4:0.8254 5:0.628067 6:-0.977757 7:-0.982683 8:0.0889563 9:1 
-1 1:0.476495 2:0.990658 3:-0.85918 4:0.80216 5:-0.81881 6:-0.921335 7:-0.888999 8:-0.212243 9:0.68832 
-1 1:0.0416095 2:0.902563 3:-0.830258 4:0.758659 5:-1 6:-0.960667 7:-0.962243 8:-0.166883 9:0.88 
-1 1:0.173031 2:0.612724 3:-0.970235 4:0.793966 5:-0.442384 6:-0.930829 7:-0.911994 8:0.833972 9:0.73334 
-1 1:0.753719 2:0.899282 3:0.730615 4:0.68 5:-0.334973 6:-0.981283 7:-0.985806 8:0.248035 9:1 
-1 1:0.764656 2:0.515287 3:-0.645413 4:0.773855 5:0.111568 6:-0.934084 7:-0.965082 8:0.314821 9:1 
-1 1:0.679614 2:0.473904 3:-0.992559 4:0.560521 5:-0.572729 6:-0.97857 7:-0.988077 8:-0.230691 9:1 
-1 1:0.127124 2:0.738573 3:0.15125 4:0.626965 5:0.372736 6:-0.844839 7:-0.788219 8:-0.0928168 9:0.3409 
-1 1:0.656547 2:0.922329 3:0.107465 4:0.706816 5:0.634039 6:0.432524 7:-0.283463 8:-0.697587 9:-0.67392 
